<?xml version="1.0"?>
<opencv_storage>
<stage5>
  <maxWeakCount>10</maxWeakCount>
  <stageThreshold>-7.8818798065185547e-01</stageThreshold>
  <weakClassifiers>
    <_>
      <internalNodes>
        0 -1 14542 2.6425311341881752e-02</internalNodes>
      <leafValues>
        -3.7222221493721008e-01 6.0000002384185791e-01</leafValues></_>
    <_>
      <internalNodes>
        0 -1 8236 4.4121313840150833e-02</internalNodes>
      <leafValues>
        -3.2573238015174866e-01 6.1611104011535645e-01</leafValues></_>
    <_>
      <internalNodes>
        0 -1 72604 2.1910104900598526e-02</internalNodes>
      <leafValues>
        -3.5880577564239502e-01 4.6902325749397278e-01</leafValues></_>
    <_>
      <internalNodes>
        0 -1 57499 -8.1446638796478510e-04</internalNodes>
      <leafValues>
        -6.9315141439437866e-01 2.8508022427558899e-01</leafValues></_>
    <_>
      <internalNodes>
        0 -1 77172 1.6747305169701576e-02</internalNodes>
      <leafValues>
        -2.2521358728408813e-01 8.6678862571716309e-01</leafValues></_>
    <_>
      <internalNodes>
        0 -1 12602 1.0331369936466217e-02</internalNodes>
      <leafValues>
        -3.2254561781883240e-01 5.1682949066162109e-01</leafValues></_>
    <_>
      <internalNodes>
        0 -1 49856 8.9115364244207740e-04</internalNodes>
      <leafValues>
        -3.3530658483505249e-01 5.8996897935867310e-01</leafValues></_>
    <_>
      <internalNodes>
        0 -1 28032 -1.5386143699288368e-02</internalNodes>
      <leafValues>
        4.9223601818084717e-01 -3.6723223328590393e-01</leafValues></_>
    <_>
      <internalNodes>
        0 -1 19253 -9.6597342053428292e-04</internalNodes>
      <leafValues>
        2.5799560546875000e-01 -6.6568261384963989e-01</leafValues></_>
    <_>
      <internalNodes>
        0 -1 29472 4.7347251325845718e-02</internalNodes>
      <leafValues>
        1.5111713111400604e-01 -9.3037468194961548e-01</leafValues></_></weakClassifiers></stage5>
</opencv_storage>
